<?xml version="1.0"?>
<opencv_storage>
<stage5>
  <maxWeakCount>5</maxWeakCount>
  <stageThreshold>-1.3178468942642212e+00</stageThreshold>
  <weakClassifiers>
    <_>
      <internalNodes>
        0 -1 362964 -3.6525176255963743e-05</internalNodes>
      <leafValues>
        4.9794238805770874e-01 -8.1818181276321411e-01</leafValues></_>
    <_>
      <internalNodes>
        0 -1 357305 -1.7374712115270086e-05</internalNodes>
      <leafValues>
        6.5338188409805298e-01 -7.2649371623992920e-01</leafValues></_>
    <_>
      <internalNodes>
        0 -1 1881 1.3592916366178542e-04</internalNodes>
      <leafValues>
        -6.9304651021957397e-01 5.2504980564117432e-01</leafValues></_>
    <_>
      <internalNodes>
        0 -1 19945 -1.8873499357141554e-05</internalNodes>
      <leafValues>
        5.7771515846252441e-01 -7.5365519523620605e-01</leafValues></_>
    <_>
      <internalNodes>
        0 -1 75138 -1.7580055864527822e-03</internalNodes>
      <leafValues>
        -9.7399270534515381e-01 4.5543399453163147e-01</leafValues></_></weakClassifiers></stage5>
</opencv_storage>
