<?xml version="1.0"?>
<opencv_storage>
<cascade>
  <stageType>BOOST</stageType>
  <featureType>HAAR</featureType>
  <height>24</height>
  <width>36</width>
  <stageParams>
    <boostType>GAB</boostType>
    <minHitRate>9.9500000476837158e-01</minHitRate>
    <maxFalseAlarm>5.0000000000000000e-01</maxFalseAlarm>
    <weightTrimRate>9.4999998807907104e-01</weightTrimRate>
    <maxDepth>1</maxDepth>
    <maxWeakCount>100</maxWeakCount></stageParams>
  <featureParams>
    <maxCatCount>0</maxCatCount>
    <featSize>1</featSize>
    <mode>BASIC</mode></featureParams>
  <stageNum>13</stageNum>
  <stages>
    <!-- stage 0 -->
    <_>
      <maxWeakCount>2</maxWeakCount>
      <stageThreshold>3.8461539894342422e-02</stageThreshold>
      <weakClassifiers>
        <_>
          <internalNodes>
            0 -1 2 -1.9749559462070465e-02</internalNodes>
          <leafValues>
            9.3000000715255737e-01 -9.6153843402862549e-01</leafValues></_>
        <_>
          <internalNodes>
            0 -1 40 2.5952246505767107e-03</internalNodes>
          <leafValues>
            -8.2682853937149048e-01 1.</leafValues></_></weakClassifiers></_>
    <!-- stage 1 -->
    <_>
      <maxWeakCount>3</maxWeakCount>
      <stageThreshold>-9.0477252006530762e-01</stageThreshold>
      <weakClassifiers>
        <_>
          <internalNodes>
            0 -1 6 -2.3632971569895744e-03</internalNodes>
          <leafValues>
            8.1642514467239380e-01 -9.1044777631759644e-01</leafValues></_>
        <_>
          <internalNodes>
            0 -1 17 -1.0532039217650890e-02</internalNodes>
          <leafValues>
            8.1245863437652588e-01 -6.4880293607711792e-01</leafValues></_>
        <_>
          <internalNodes>
            0 -1 39 1.1243672342970967e-03</internalNodes>
          <leafValues>
            -8.0862474441528320e-01 6.5447819232940674e-01</leafValues></_></weakClassifiers></_>
    <!-- stage 2 -->
    <_>
      <maxWeakCount>2</maxWeakCount>
      <stageThreshold>-1.4221452176570892e-01</stageThreshold>
      <weakClassifiers>
        <_>
          <internalNodes>
            0 -1 4 1.8382455455139279e-03</internalNodes>
          <leafValues>
            -8.2914572954177856e-01 7.2248804569244385e-01</leafValues></_>
        <_>
          <internalNodes>
            0 -1 32 -1.3529849238693714e-03</internalNodes>
          <leafValues>
            6.8693119287490845e-01 -6.9141703844070435e-01</leafValues></_></weakClassifiers></_>
    <!-- stage 3 -->
    <_>
      <maxWeakCount>4</maxWeakCount>
      <stageThreshold>-5.2236431837081909e-01</stageThreshold>
      <weakClassifiers>
        <_>
          <internalNodes>
            0 -1 33 -3.4542877983767539e-05</internalNodes>
          <leafValues>
            4.6613547205924988e-01 -8.3439493179321289e-01</leafValues></_>
        <_>
          <internalNodes>
            0 -1 20 -7.0345167841878720e-06</internalNodes>
          <leafValues>
            4.7082707285881042e-01 -8.0732876062393188e-01</leafValues></_>
        <_>
          <internalNodes>
            0 -1 23 2.6377048343420029e-02</internalNodes>
          <leafValues>
            -5.2916157245635986e-01 7.7122473716735840e-01</leafValues></_>
        <_>
          <internalNodes>
            0 -1 41 -3.7491801194846630e-03</internalNodes>
          <leafValues>
            5.3180080652236938e-01 -9.3016523122787476e-01</leafValues></_></weakClassifiers></_>
    <!-- stage 4 -->
    <_>
      <maxWeakCount>3</maxWeakCount>
      <stageThreshold>-5.2904134988784790e-01</stageThreshold>
      <weakClassifiers>
        <_>
          <internalNodes>
            0 -1 1 1.4106675516813993e-03</internalNodes>
          <leafValues>
            -5.9670782089233398e-01 7.9393941164016724e-01</leafValues></_>
        <_>
          <internalNodes>
            0 -1 21 -9.2636642511934042e-04</internalNodes>
          <leafValues>
            -7.1570253372192383e-01 6.1707711219787598e-01</leafValues></_>
        <_>
          <internalNodes>
            0 -1 26 -3.0741594731807709e-02</internalNodes>
          <leafValues>
            7.8336894512176514e-01 -5.2656066417694092e-01</leafValues></_></weakClassifiers></_>
    <!-- stage 5 -->
    <_>
      <maxWeakCount>5</maxWeakCount>
      <stageThreshold>-1.3178468942642212e+00</stageThreshold>
      <weakClassifiers>
        <_>
          <internalNodes>
            0 -1 37 -3.6525176255963743e-05</internalNodes>
          <leafValues>
            4.9794238805770874e-01 -8.1818181276321411e-01</leafValues></_>
        <_>
          <internalNodes>
            0 -1 31 -1.7374712115270086e-05</internalNodes>
          <leafValues>
            6.5338188409805298e-01 -7.2649371623992920e-01</leafValues></_>
        <_>
          <internalNodes>
            0 -1 0 1.3592916366178542e-04</internalNodes>
          <leafValues>
            -6.9304651021957397e-01 5.2504980564117432e-01</leafValues></_>
        <_>
          <internalNodes>
            0 -1 9 -1.8873499357141554e-05</internalNodes>
          <leafValues>
            5.7771515846252441e-01 -7.5365519523620605e-01</leafValues></_>
        <_>
          <internalNodes>
            0 -1 18 -1.7580055864527822e-03</internalNodes>
          <leafValues>
            -9.7399270534515381e-01 4.5543399453163147e-01</leafValues></_></weakClassifiers></_>
    <!-- stage 6 -->
    <_>
      <maxWeakCount>4</maxWeakCount>
      <stageThreshold>-3.7126386165618896e-01</stageThreshold>
      <weakClassifiers>
        <_>
          <internalNodes>
            0 -1 15 1.6371304809581488e-05</internalNodes>
          <leafValues>
            -7.7108430862426758e-01 4.7107437252998352e-01</leafValues></_>
        <_>
          <internalNodes>
            0 -1 16 -1.3661184348165989e-02</internalNodes>
          <leafValues>
            6.3435530662536621e-01 -6.5726798772811890e-01</leafValues></_>
        <_>
          <internalNodes>
            0 -1 30 2.9477532953023911e-03</internalNodes>
          <leafValues>
            -6.6444909572601318e-01 6.4145189523696899e-01</leafValues></_>
        <_>
          <internalNodes>
            0 -1 19 -7.0345167841878720e-06</internalNodes>
          <leafValues>
            4.7937887907028198e-01 -7.3166984319686890e-01</leafValues></_></weakClassifiers></_>
    <!-- stage 7 -->
    <_>
      <maxWeakCount>4</maxWeakCount>
      <stageThreshold>-5.9745669364929199e-02</stageThreshold>
      <weakClassifiers>
        <_>
          <internalNodes>
            0 -1 25 8.9165978133678436e-03</internalNodes>
          <leafValues>
            -4.5054945349693298e-01 8.0740737915039063e-01</leafValues></_>
        <_>
          <internalNodes>
            0 -1 36 -1.7158541595563293e-05</internalNodes>
          <leafValues>
            6.9541680812835693e-01 -4.9874225258827209e-01</leafValues></_>
        <_>
          <internalNodes>
            0 -1 10 -5.0979515071958303e-04</internalNodes>
          <leafValues>
            -9.8741334676742554e-01 4.1621458530426025e-01</leafValues></_>
        <_>
          <internalNodes>
            0 -1 5 -6.1066838679835200e-04</internalNodes>
          <leafValues>
            5.8451920747756958e-01 -7.2082763910293579e-01</leafValues></_></weakClassifiers></_>
    <!-- stage 8 -->
    <_>
      <maxWeakCount>3</maxWeakCount>
      <stageThreshold>-8.8893890380859375e-01</stageThreshold>
      <weakClassifiers>
        <_>
          <internalNodes>
            0 -1 10 -1.2499871081672609e-04</internalNodes>
          <leafValues>
            6.5217393636703491e-01 -7.4129354953765869e-01</leafValues></_>
        <_>
          <internalNodes>
            0 -1 12 5.6949873396661133e-05</internalNodes>
          <leafValues>
            -7.2854590415954590e-01 5.8206200599670410e-01</leafValues></_>
        <_>
          <internalNodes>
            0 -1 13 -1.8764050677418709e-02</internalNodes>
          <leafValues>
            6.2786227464675903e-01 -7.2970736026763916e-01</leafValues></_></weakClassifiers></_>
    <!-- stage 9 -->
    <_>
      <maxWeakCount>4</maxWeakCount>
      <stageThreshold>-6.5436977148056030e-01</stageThreshold>
      <weakClassifiers>
        <_>
          <internalNodes>
            0 -1 14 -1.7882070096675307e-05</internalNodes>
          <leafValues>
            4.9572649598121643e-01 -7.4712646007537842e-01</leafValues></_>
        <_>
          <internalNodes>
            0 -1 11 1.7669779481366277e-05</internalNodes>
          <leafValues>
            -7.9268532991409302e-01 3.9427521824836731e-01</leafValues></_>
        <_>
          <internalNodes>
            0 -1 3 -1.1506440205266699e-04</internalNodes>
          <leafValues>
            4.7267866134643555e-01 -6.9549983739852905e-01</leafValues></_>
        <_>
          <internalNodes>
            0 -1 42 -1.5810946933925152e-04</internalNodes>
          <leafValues>
            5.2874165773391724e-01 -8.3008962869644165e-01</leafValues></_></weakClassifiers></_>
    <!-- stage 10 -->
    <_>
      <maxWeakCount>4</maxWeakCount>
      <stageThreshold>1.3015224039554596e-01</stageThreshold>
      <weakClassifiers>
        <_>
          <internalNodes>
            0 -1 28 5.8568865060806274e-03</internalNodes>
          <leafValues>
            -4.5387452840805054e-01 7.9562044143676758e-01</leafValues></_>
        <_>
          <internalNodes>
            0 -1 35 -3.0925887404009700e-04</internalNodes>
          <leafValues>
            6.1872988939285278e-01 -6.4388877153396606e-01</leafValues></_>
        <_>
          <internalNodes>
            0 -1 7 -1.9101476937066764e-05</internalNodes>
          <leafValues>
            4.5913514494895935e-01 -7.2221159934997559e-01</leafValues></_>
        <_>
          <internalNodes>
            0 -1 22 7.6541919261217117e-03</internalNodes>
          <leafValues>
            -4.8071461915969849e-01 7.7976566553115845e-01</leafValues></_></weakClassifiers></_>
    <!-- stage 11 -->
    <_>
      <maxWeakCount>2</maxWeakCount>
      <stageThreshold>-2.7961012721061707e-01</stageThreshold>
      <weakClassifiers>
        <_>
          <internalNodes>
            0 -1 24 -7.9789615483605303e-06</internalNodes>
          <leafValues>
            6.2561577558517456e-01 -6.8780487775802612e-01</leafValues></_>
        <_>
          <internalNodes>
            0 -1 38 -1.4315480366349220e-03</internalNodes>
          <leafValues>
            4.1228950023651123e-01 -9.0522587299346924e-01</leafValues></_></weakClassifiers></_>
    <!-- stage 12 -->
    <_>
      <maxWeakCount>4</maxWeakCount>
      <stageThreshold>-8.2615017890930176e-01</stageThreshold>
      <weakClassifiers>
        <_>
          <internalNodes>
            0 -1 27 -1.2220677919685841e-02</internalNodes>
          <leafValues>
            -9.6581196784973145e-01 3.4020617604255676e-01</leafValues></_>
        <_>
          <internalNodes>
            0 -1 8 -1.6975161997834221e-05</internalNodes>
          <leafValues>
            4.2202135920524597e-01 -7.1567136049270630e-01</leafValues></_>
        <_>
          <internalNodes>
            0 -1 29 -1.6315734683303162e-05</internalNodes>
          <leafValues>
            5.6312048435211182e-01 -6.1635410785675049e-01</leafValues></_>
        <_>
          <internalNodes>
            0 -1 34 1.8141592590836808e-05</internalNodes>
          <leafValues>
            -8.4548002481460571e-01 4.5667004585266113e-01</leafValues></_></weakClassifiers></_></stages>
  <features>
    <_>
      <rects>
        <_>
          0 1 8 1 -1.</_>
        <_>
          4 1 4 1 2.</_></rects>
      <tilted>0</tilted></_>
    <_>
      <rects>
        <_>
          0 9 1 6 -1.</_>
        <_>
          0 11 1 2 3.</_></rects>
      <tilted>0</tilted></_>
    <_>
      <rects>
        <_>
          0 10 36 9 -1.</_>
        <_>
          0 13 36 3 3.</_></rects>
      <tilted>0</tilted></_>
    <_>
      <rects>
        <_>
          0 11 1 2 -1.</_>
        <_>
          0 12 1 1 2.</_></rects>
      <tilted>0</tilted></_>
    <_>
      <rects>
        <_>
          0 11 19 3 -1.</_>
        <_>
          0 12 19 1 3.</_></rects>
      <tilted>0</tilted></_>
    <_>
      <rects>
        <_>
          0 12 1 3 -1.</_>
        <_>
          0 13 1 1 3.</_></rects>
      <tilted>0</tilted></_>
    <_>
      <rects>
        <_>
          0 12 20 3 -1.</_>
        <_>
          0 13 20 1 3.</_></rects>
      <tilted>0</tilted></_>
    <_>
      <rects>
        <_>
          0 13 1 2 -1.</_>
        <_>
          0 14 1 1 2.</_></rects>
      <tilted>0</tilted></_>
    <_>
      <rects>
        <_>
          0 21 1 2 -1.</_>
        <_>
          0 22 1 1 2.</_></rects>
      <tilted>0</tilted></_>
    <_>
      <rects>
        <_>
          0 22 1 2 -1.</_>
        <_>
          0 23 1 1 2.</_></rects>
      <tilted>0</tilted></_>
    <_>
      <rects>
        <_>
          0 22 4 2 -1.</_>
        <_>
          0 23 4 1 2.</_></rects>
      <tilted>0</tilted></_>
    <_>
      <rects>
        <_>
          1 1 4 1 -1.</_>
        <_>
          3 1 2 1 2.</_></rects>
      <tilted>0</tilted></_>
    <_>
      <rects>
        <_>
          1 1 8 1 -1.</_>
        <_>
          5 1 4 1 2.</_></rects>
      <tilted>0</tilted></_>
    <_>
      <rects>
        <_>
          1 9 9 12 -1.</_>
        <_>
          1 13 9 4 3.</_></rects>
      <tilted>0</tilted></_>
    <_>
      <rects>
        <_>
          1 22 1 2 -1.</_>
        <_>
          1 23 1 1 2.</_></rects>
      <tilted>0</tilted></_>
    <_>
      <rects>
        <_>
          2 0 1 2 -1.</_>
        <_>
          2 1 1 1 2.</_></rects>
      <tilted>0</tilted></_>
    <_>
      <rects>
        <_>
          2 0 28 8 -1.</_>
        <_>
          2 4 28 4 2.</_></rects>
      <tilted>0</tilted></_>
    <_>
      <rects>
        <_>
          2 4 2 14 -1.</_>
        <_>
          2 11 2 7 2.</_></rects>
      <tilted>0</tilted></_>
    <_>
      <rects>
        <_>
          3 18 3 6 -1.</_>
        <_>
          3 21 3 3 2.</_></rects>
      <tilted>0</tilted></_>
    <_>
      <rects>
        <_>
          3 21 1 2 -1.</_>
        <_>
          3 22 1 1 2.</_></rects>
      <tilted>0</tilted></_>
    <_>
      <rects>
        <_>
          3 22 1 2 -1.</_>
        <_>
          3 23 1 1 2.</_></rects>
      <tilted>0</tilted></_>
    <_>
      <rects>
        <_>
          4 20 20 1 -1.</_>
        <_>
          14 20 10 1 2.</_></rects>
      <tilted>0</tilted></_>
    <_>
      <rects>
        <_>
          6 5 14 6 -1.</_>
        <_>
          6 5 7 3 2.</_>
        <_>
          13 8 7 3 2.</_></rects>
      <tilted>0</tilted></_>
    <_>
      <rects>
        <_>
          6 10 18 5 -1.</_>
        <_>
          12 10 6 5 3.</_></rects>
      <tilted>0</tilted></_>
    <_>
      <rects>
        <_>
          7 21 1 2 -1.</_>
        <_>
          7 22 1 1 2.</_></rects>
      <tilted>0</tilted></_>
    <_>
      <rects>
        <_>
          11 12 12 8 -1.</_>
        <_>
          11 12 6 4 2.</_>
        <_>
          17 16 6 4 2.</_></rects>
      <tilted>0</tilted></_>
    <_>
      <rects>
        <_>
          14 7 15 17 -1.</_>
        <_>
          19 7 5 17 3.</_></rects>
      <tilted>0</tilted></_>
    <_>
      <rects>
        <_>
          20 4 16 11 -1.</_>
        <_>
          28 4 8 11 2.</_></rects>
      <tilted>0</tilted></_>
    <_>
      <rects>
        <_>
          21 9 2 14 -1.</_>
        <_>
          21 16 2 7 2.</_></rects>
      <tilted>0</tilted></_>
    <_>
      <rects>
        <_>
          30 4 2 1 -1.</_>
        <_>
          31 4 1 1 2.</_></rects>
      <tilted>0</tilted></_>
    <_>
      <rects>
        <_>
          30 10 5 3 -1.</_>
        <_>
          30 11 5 1 3.</_></rects>
      <tilted>0</tilted></_>
    <_>
      <rects>
        <_>
          31 2 2 1 -1.</_>
        <_>
          32 2 1 1 2.</_></rects>
      <tilted>0</tilted></_>
    <_>
      <rects>
        <_>
          32 11 2 2 -1.</_>
        <_>
          32 12 2 1 2.</_></rects>
      <tilted>0</tilted></_>
    <_>
      <rects>
        <_>
          33 1 2 3 -1.</_>
        <_>
          34 1 1 3 2.</_></rects>
      <tilted>0</tilted></_>
    <_>
      <rects>
        <_>
          33 1 3 2 -1.</_>
        <_>
          33 2 3 1 2.</_></rects>
      <tilted>0</tilted></_>
    <_>
      <rects>
        <_>
          33 14 3 6 -1.</_>
        <_>
          33 17 3 3 2.</_></rects>
      <tilted>0</tilted></_>
    <_>
      <rects>
        <_>
          33 20 1 2 -1.</_>
        <_>
          33 21 1 1 2.</_></rects>
      <tilted>0</tilted></_>
    <_>
      <rects>
        <_>
          34 1 2 3 -1.</_>
        <_>
          35 1 1 3 2.</_></rects>
      <tilted>0</tilted></_>
    <_>
      <rects>
        <_>
          34 6 1 8 -1.</_>
        <_>
          34 10 1 4 2.</_></rects>
      <tilted>0</tilted></_>
    <_>
      <rects>
        <_>
          34 10 2 3 -1.</_>
        <_>
          34 11 2 1 3.</_></rects>
      <tilted>0</tilted></_>
    <_>
      <rects>
        <_>
          35 4 1 12 -1.</_>
        <_>
          35 8 1 4 3.</_></rects>
      <tilted>0</tilted></_>
    <_>
      <rects>
        <_>
          35 6 1 10 -1.</_>
        <_>
          35 11 1 5 2.</_></rects>
      <tilted>0</tilted></_>
    <_>
      <rects>
        <_>
          35 11 1 3 -1.</_>
        <_>
          35 12 1 1 3.</_></rects>
      <tilted>0</tilted></_></features></cascade>
</opencv_storage>
